{"sizes":[3,6,4,1],"layers":[{"0":{},"1":{},"2":{}},{"0":{"bias":-1.0297787189483643,"weights":{"0":0.5790508389472961,"1":1.341409683227539,"2":0.6933399438858032}},"1":{"bias":-1.7426475286483765,"weights":{"0":4.466558456420898,"1":3.94384765625,"2":0.3651604652404785}},"2":{"bias":-1.189414381980896,"weights":{"0":0.509436845779419,"1":1.365845799446106,"2":0.3519447445869446}},"3":{"bias":-0.2368101328611374,"weights":{"0":0.8825454115867615,"1":-1.0971027612686157,"2":0.5559471249580383}},"4":{"bias":-1.062457799911499,"weights":{"0":0.7113403081893921,"1":1.4378854036331177,"2":0.6072131395339966}},"5":{"bias":-6.382913112640381,"weights":{"0":1.3308793306350708,"1":2.204690456390381,"2":-8.99262523651123}}},{"0":{"bias":0.02061111479997635,"weights":{"0":-0.8756723999977112,"1":-1.692601203918457,"2":-0.5315432548522949,"3":0.19107010960578918,"4":-0.716665506362915,"5":-2.292125940322876}},"1":{"bias":1.4169418811798096,"weights":{"0":0.07253333926200867,"1":-1.7002511024475098,"2":-0.10364688187837601,"3":1.2949262857437134,"4":-0.10202429443597794,"5":-4.329518795013428}},"2":{"bias":1.1621379852294922,"weights":{"0":-0.1775134801864624,"1":-1.9357588291168213,"2":-0.4149363934993744,"3":0.7232679128646851,"4":-0.3441726863384247,"5":-3.426036834716797}},"3":{"bias":0.20650222897529602,"weights":{"0":-0.8158173561096191,"1":-1.8402117490768433,"2":-0.6130829453468323,"3":0.16465134918689728,"4":-0.7254129648208618,"5":-2.422135829925537}}},{"0":{"bias":2.8102426528930664,"weights":{"0":-1.683742880821228,"1":-2.6845264434814453,"2":-2.1644582748413086,"3":-1.8220189809799194}}}],"outputLookup":false,"inputLookup":false,"activation":"sigmoid","trainOpts":{"iterations":2000,"errorThresh":0.005,"log":false,"logPeriod":10,"learningRate":0.3,"momentum":0.1,"callbackPeriod":10,"beta1":0.9,"beta2":0.999,"epsilon":1e-8}}